{
  "model_name": "round_model",
  "model_version": "prop_logreg_v1",
  "model_type": "numpy_softmax_logistic_regression",
  "feature_names": [
    "delta_slpm",
    "delta_str_acc",
    "delta_str_def",
    "delta_sapm",
    "delta_td_avg",
    "delta_td_acc",
    "delta_td_def",
    "delta_sub_avg",
    "delta_reach",
    "delta_elo",
    "delta_points_p4p",
    "delta_rank_p4p",
    "delta_points_dom",
    "delta_rank_dom",
    "elo_expected_a",
    "delta_injury_flag",
    "delta_short_notice_flag",
    "delta_weight_cut_issue_flag",
    "delta_stylistic_mismatch_flag",
    "delta_cardio_issue_flag",
    "delta_layoff_concern_flag",
    "delta_age_decline_flag",
    "delta_chin_decline_flag",
    "delta_momentum_flag",
    "delta_home_crowd_flag"
  ],
  "classes": [
    "decision",
    "early",
    "late",
    "middle"
  ],
  "means": [
    0.3729836333878888,
    2.5034369885433714,
    2.66088379705401,
    -0.2747643207855973,
    0.23209819967266782,
    3.956464811783961,
    6.896235679214403,
    0.038936170212766,
    16.406487725040932,
    45.562106382978776,
    3.2204582651391163,
    -0.12978723404255318,
    5.526186579378069,
    -0.05990180032733224,
    0.5628110154667085,
    0.0,
    0.0,
    0.0,
    0.0,
    0.0,
    0.0,
    0.0,
    0.0,
    0.0,
    0.0
  ],
  "scales": [
    1.6102810597486268,
    12.111656123187919,
    11.575492984927553,
    1.7785269383616953,
    1.8053447699292724,
    27.95171901128348,
    29.69529440099014,
    1.0823087921759156,
    57.876042083673106,
    66.95795666352844,
    32.067696505999045,
    1.4768302591378044,
    72.61498958184207,
    0.7954531118831896,
    0.09025292434633336,
    1.0,
    1.0,
    1.0,
    1.0,
    1.0,
    1.0,
    1.0,
    1.0,
    1.0,
    1.0
  ],
  "weights": [
    [
      -0.03719149650667356,
      0.02663696784442545,
      -0.03925825025989783,
      -0.06162768726785666,
      0.11784072690809043,
      0.0619806382419762,
      -0.03455922113924987,
      -0.12111326048874456,
      0.005449946441769617,
      -0.0471070609780703,
      -0.0661194739839904,
      -0.03974049668737036,
      0.06389070377717819,
      0.1018141287517543,
      0.01518743667884619,
      0.0,
      0.0,
      0.0,
      0.0,
      0.0,
      0.0,
      0.0,
      0.0,
      0.0,
      0.0
    ],
    [
      -0.1337196463235528,
      0.08990619667377447,
      0.03804910869506654,
      0.0658384258947367,
      -0.12056549432234893,
      0.049640900158323537,
      0.09216472639153733,
      0.13772684920500958,
      0.21093901087456915,
      -0.09232731419418622,
      -0.04549823306253817,
      -0.0796286492810649,
      0.007544029553222689,
      0.07605677102288667,
      0.04051549496842122,
      0.0,
      0.0,
      0.0,
      0.0,
      0.0,
      0.0,
      0.0,
      0.0,
      0.0,
      0.0
    ],
    [
      0.10856224692616365,
      -0.08658581337812753,
      -0.029854944480689986,
      -0.013067062699427135,
      0.0052522082351989866,
      -0.05089872055063208,
      -0.08579519239169034,
      -0.13136489214916108,
      -0.2766924112910468,
      0.14472964362666552,
      0.11484941913482262,
      0.09430427999808286,
      -0.07388849703781009,
      -0.1432236801456595,
      -0.06745914091381469,
      0.0,
      0.0,
      0.0,
      0.0,
      0.0,
      0.0,
      0.0,
      0.0,
      0.0,
      0.0
    ],
    [
      0.06234889590406289,
      -0.02995735114007243,
      0.031064086045521133,
      0.00885632407254719,
      -0.0025274408209401762,
      -0.06072281784966777,
      0.028189687139402998,
      0.11475130343289629,
      0.06030345397470895,
      -0.0052952684544089286,
      -0.003231712088294054,
      0.025064865970352578,
      0.0024537637074094577,
      -0.03464721962898148,
      0.011756209266547333,
      0.0,
      0.0,
      0.0,
      0.0,
      0.0,
      0.0,
      0.0,
      0.0,
      0.0,
      0.0
    ]
  ],
  "intercept": [
    0.026480084132047138,
    0.015183259326308911,
    -0.06983277569142933,
    0.02816943223307503
  ],
  "metrics": {
    "model_name": "round_model",
    "model_version": "prop_logreg_v1",
    "n_samples": 7638,
    "classes": [
      "decision",
      "early",
      "late",
      "middle"
    ],
    "class_counts": {
      "middle": 1854,
      "early": 2182,
      "decision": 3523,
      "late": 79
    },
    "train_accuracy": 0.3146,
    "test_accuracy": 0.3017
  },
  "message": "Dedicated prop model artifact trained from cached fight result labels."
}